digraph Tree {
node [shape=box] ;
0 [label="X[12] <= 7.875\nmse = 86.039\nsamples = 339\nvalue = 22.821"] ;
1 [label="X[5] <= 7.435\nmse = 80.999\nsamples = 113\nvalue = 31.76"] ;
0 -> 1 [labeldistance=2.5, labelangle=45, headlabel="True"] ;
2 [label="X[7] <= 1.485\nmse = 37.16\nsamples = 90\nvalue = 28.451"] ;
1 -> 2 ;
3 [label="mse = 0.0\nsamples = 3\nvalue = 50.0"] ;
2 -> 3 ;
4 [label="X[5] <= 6.797\nmse = 21.878\nsamples = 87\nvalue = 27.708"] ;
2 -> 4 ;
5 [label="X[5] <= 6.532\nmse = 8.698\nsamples = 55\nvalue = 25.169"] ;
4 -> 5 ;
6 [label="X[7] <= 6.364\nmse = 2.685\nsamples = 34\nvalue = 23.682"] ;
5 -> 6 ;
7 [label="X[7] <= 2.158\nmse = 1.635\nsamples = 21\nvalue = 24.4"] ;
6 -> 7 ;
8 [label="X[6] <= 96.3\nmse = 1.976\nsamples = 3\nvalue = 26.267"] ;
7 -> 8 ;
9 [label="X[2] <= 18.84\nmse = 0.062\nsamples = 2\nvalue = 27.25"] ;
8 -> 9 ;
10 [label="mse = 0.0\nsamples = 1\nvalue = 27.5"] ;
9 -> 10 ;
11 [label="mse = 0.0\nsamples = 1\nvalue = 27.0"] ;
9 -> 11 ;
12 [label="mse = -0.0\nsamples = 1\nvalue = 24.3"] ;
8 -> 12 ;
13 [label="X[5] <= 6.168\nmse = 0.901\nsamples = 18\nvalue = 24.089"] ;
7 -> 13 ;
14 [label="X[0] <= 0.035\nmse = 0.416\nsamples = 5\nvalue = 23.0"] ;
13 -> 14 ;
15 [label="mse = 0.0\nsamples = 1\nvalue = 24.1"] ;
14 -> 15 ;
16 [label="X[7] <= 3.569\nmse = 0.142\nsamples = 4\nvalue = 22.725"] ;
14 -> 16 ;
17 [label="mse = 0.0\nsamples = 1\nvalue = 22.1"] ;
16 -> 17 ;
18 [label="X[10] <= 20.1\nmse = 0.016\nsamples = 3\nvalue = 22.933"] ;
16 -> 18 ;
19 [label="X[9] <= 293.0\nmse = 0.002\nsamples = 2\nvalue = 22.85"] ;
18 -> 19 ;
20 [label="mse = 0.0\nsamples = 1\nvalue = 22.9"] ;
19 -> 20 ;
21 [label="mse = -0.0\nsamples = 1\nvalue = 22.8"] ;
19 -> 21 ;
22 [label="mse = 0.0\nsamples = 1\nvalue = 23.1"] ;
18 -> 22 ;
23 [label="X[9] <= 284.0\nmse = 0.456\nsamples = 13\nvalue = 24.508"] ;
13 -> 23 ;
24 [label="X[12] <= 6.655\nmse = 0.052\nsamples = 5\nvalue = 25.0"] ;
23 -> 24 ;
25 [label="X[1] <= 24.0\nmse = 0.016\nsamples = 3\nvalue = 25.167"] ;
24 -> 25 ;
26 [label="X[2] <= 6.935\nmse = 0.003\nsamples = 2\nvalue = 25.25"] ;
25 -> 26 ;
27 [label="mse = 0.0\nsamples = 1\nvalue = 25.3"] ;
26 -> 27 ;
28 [label="mse = 0.0\nsamples = 1\nvalue = 25.2"] ;
26 -> 28 ;
29 [label="mse = 0.0\nsamples = 1\nvalue = 25.0"] ;
25 -> 29 ;
30 [label="X[11] <= 395.68\nmse = 0.002\nsamples = 2\nvalue = 24.75"] ;
24 -> 30 ;
31 [label="mse = 0.0\nsamples = 1\nvalue = 24.7"] ;
30 -> 31 ;
32 [label="mse = 0.0\nsamples = 1\nvalue = 24.8"] ;
30 -> 32 ;
33 [label="X[0] <= 0.268\nmse = 0.463\nsamples = 8\nvalue = 24.2"] ;
23 -> 33 ;
34 [label="X[12] <= 6.795\nmse = 0.332\nsamples = 6\nvalue = 23.933"] ;
33 -> 34 ;
35 [label="X[5] <= 6.456\nmse = 0.137\nsamples = 4\nvalue = 24.275"] ;
34 -> 35 ;
36 [label="X[2] <= 9.095\nmse = 0.036\nsamples = 3\nvalue = 24.467"] ;
35 -> 36 ;
37 [label="mse = 0.0\nsamples = 2\nvalue = 24.6"] ;
36 -> 37 ;
38 [label="mse = -0.0\nsamples = 1\nvalue = 24.2"] ;
36 -> 38 ;
39 [label="mse = -0.0\nsamples = 1\nvalue = 23.7"] ;
35 -> 39 ;
40 [label="X[6] <= 30.25\nmse = 0.023\nsamples = 2\nvalue = 23.25"] ;
34 -> 40 ;
41 [label="mse = 0.0\nsamples = 1\nvalue = 23.4"] ;
40 -> 41 ;
42 [label="mse = 0.0\nsamples = 1\nvalue = 23.1"] ;
40 -> 42 ;
43 [label="mse = 0.0\nsamples = 2\nvalue = 25.0"] ;
33 -> 43 ;
44 [label="X[5] <= 6.088\nmse = 2.205\nsamples = 13\nvalue = 22.523"] ;
6 -> 44 ;
45 [label="X[6] <= 21.4\nmse = 0.36\nsamples = 2\nvalue = 20.0"] ;
44 -> 45 ;
46 [label="mse = 0.0\nsamples = 1\nvalue = 20.6"] ;
45 -> 46 ;
47 [label="mse = 0.0\nsamples = 1\nvalue = 19.4"] ;
45 -> 47 ;
48 [label="X[6] <= 34.7\nmse = 1.172\nsamples = 11\nvalue = 22.982"] ;
44 -> 48 ;
49 [label="X[1] <= 23.5\nmse = 0.409\nsamples = 6\nvalue = 23.75"] ;
48 -> 49 ;
50 [label="X[0] <= 0.177\nmse = 0.04\nsamples = 2\nvalue = 24.6"] ;
49 -> 50 ;
51 [label="mse = 0.0\nsamples = 1\nvalue = 24.4"] ;
50 -> 51 ;
52 [label="mse = 0.0\nsamples = 1\nvalue = 24.8"] ;
50 -> 52 ;
53 [label="X[6] <= 17.75\nmse = 0.052\nsamples = 4\nvalue = 23.325"] ;
49 -> 53 ;
54 [label="mse = 0.0\nsamples = 1\nvalue = 23.7"] ;
53 -> 54 ;
55 [label="X[11] <= 391.555\nmse = 0.007\nsamples = 3\nvalue = 23.2"] ;
53 -> 55 ;
56 [label="mse = 0.0\nsamples = 1\nvalue = 23.3"] ;
55 -> 56 ;
57 [label="X[7] <= 7.926\nmse = 0.002\nsamples = 2\nvalue = 23.15"] ;
55 -> 57 ;
58 [label="mse = 0.0\nsamples = 1\nvalue = 23.2"] ;
57 -> 58 ;
59 [label="mse = 0.0\nsamples = 1\nvalue = 23.1"] ;
57 -> 59 ;
60 [label="X[5] <= 6.312\nmse = 0.53\nsamples = 5\nvalue = 22.06"] ;
48 -> 60 ;
61 [label="mse = 0.0\nsamples = 1\nvalue = 20.7"] ;
60 -> 61 ;
62 [label="X[9] <= 314.0\nmse = 0.085\nsamples = 4\nvalue = 22.4"] ;
60 -> 62 ;
63 [label="X[5] <= 6.316\nmse = 0.002\nsamples = 3\nvalue = 22.233"] ;
62 -> 63 ;
64 [label="mse = 0.0\nsamples = 1\nvalue = 22.3"] ;
63 -> 64 ;
65 [label="mse = -0.0\nsamples = 2\nvalue = 22.2"] ;
63 -> 65 ;
66 [label="mse = -0.0\nsamples = 1\nvalue = 22.9"] ;
62 -> 66 ;
67 [label="X[9] <= 269.0\nmse = 9.062\nsamples = 21\nvalue = 27.576"] ;
5 -> 67 ;
68 [label="X[7] <= 4.258\nmse = 4.875\nsamples = 8\nvalue = 29.5"] ;
67 -> 68 ;
69 [label="X[5] <= 6.661\nmse = 0.002\nsamples = 2\nvalue = 32.45"] ;
68 -> 69 ;
70 [label="mse = 0.0\nsamples = 1\nvalue = 32.5"] ;
69 -> 70 ;
71 [label="mse = -0.0\nsamples = 1\nvalue = 32.4"] ;
69 -> 71 ;
72 [label="X[2] <= 3.72\nmse = 2.631\nsamples = 6\nvalue = 28.517"] ;
68 -> 72 ;
73 [label="X[1] <= 67.5\nmse = 0.487\nsamples = 3\nvalue = 30.0"] ;
72 -> 73 ;
74 [label="mse = 0.0\nsamples = 1\nvalue = 29.1"] ;
73 -> 74 ;
75 [label="X[1] <= 82.5\nmse = 0.123\nsamples = 2\nvalue = 30.45"] ;
73 -> 75 ;
76 [label="mse = 0.0\nsamples = 1\nvalue = 30.8"] ;
75 -> 76 ;
77 [label="mse = -0.0\nsamples = 1\nvalue = 30.1"] ;
75 -> 77 ;
78 [label="X[4] <= 0.43\nmse = 0.376\nsamples = 3\nvalue = 27.033"] ;
72 -> 78 ;
79 [label="mse = 0.0\nsamples = 1\nvalue = 27.9"] ;
78 -> 79 ;
80 [label="mse = 0.0\nsamples = 2\nvalue = 26.6"] ;
78 -> 80 ;
81 [label="X[10] <= 15.25\nmse = 7.959\nsamples = 13\nvalue = 26.392"] ;
67 -> 81 ;
82 [label="mse = 0.0\nsamples = 1\nvalue = 32.0"] ;
81 -> 82 ;
83 [label="X[0] <= 0.118\nmse = 5.784\nsamples = 12\nvalue = 25.925"] ;
81 -> 83 ;
84 [label="X[12] <= 7.305\nmse = 3.225\nsamples = 9\nvalue = 24.889"] ;
83 -> 84 ;
85 [label="X[6] <= 34.7\nmse = 2.78\nsamples = 7\nvalue = 24.343"] ;
84 -> 85 ;
86 [label="X[2] <= 3.435\nmse = 3.062\nsamples = 2\nvalue = 26.25"] ;
85 -> 86 ;
87 [label="mse = 0.0\nsamples = 1\nvalue = 24.5"] ;
86 -> 87 ;
88 [label="mse = 0.0\nsamples = 1\nvalue = 28.0"] ;
86 -> 88 ;
89 [label="X[10] <= 20.0\nmse = 0.63\nsamples = 5\nvalue = 23.58"] ;
85 -> 89 ;
90 [label="X[2] <= 3.045\nmse = 0.007\nsamples = 4\nvalue = 23.975"] ;
89 -> 90 ;
91 [label="X[5] <= 6.577\nmse = 0.002\nsamples = 2\nvalue = 24.05"] ;
90 -> 91 ;
92 [label="mse = 0.0\nsamples = 1\nvalue = 24.0"] ;
91 -> 92 ;
93 [label="mse = -0.0\nsamples = 1\nvalue = 24.1"] ;
91 -> 93 ;
94 [label="mse = -0.0\nsamples = 2\nvalue = 23.9"] ;
90 -> 94 ;
95 [label="mse = 0.0\nsamples = 1\nvalue = 22.0"] ;
89 -> 95 ;
96 [label="X[11] <= 394.215\nmse = 0.09\nsamples = 2\nvalue = 26.8"] ;
84 -> 96 ;
97 [label="mse = 0.0\nsamples = 1\nvalue = 27.1"] ;
96 -> 97 ;
98 [label="mse = 0.0\nsamples = 1\nvalue = 26.5"] ;
96 -> 98 ;
99 [label="X[4] <= 0.476\nmse = 0.576\nsamples = 3\nvalue = 29.033"] ;
83 -> 99 ;
100 [label="X[9] <= 282.5\nmse = 0.01\nsamples = 2\nvalue = 28.5"] ;
99 -> 100 ;
101 [label="mse = 0.0\nsamples = 1\nvalue = 28.4"] ;
100 -> 101 ;
102 [label="mse = 0.0\nsamples = 1\nvalue = 28.6"] ;
100 -> 102 ;
103 [label="mse = 0.0\nsamples = 1\nvalue = 30.1"] ;
99 -> 103 ;
104 [label="X[10] <= 19.45\nmse = 14.406\nsamples = 32\nvalue = 32.072"] ;
4 -> 104 ;
105 [label="X[5] <= 7.118\nmse = 10.327\nsamples = 29\nvalue = 32.786"] ;
104 -> 105 ;
106 [label="X[7] <= 3.761\nmse = 10.09\nsamples = 17\nvalue = 31.406"] ;
105 -> 106 ;
107 [label="X[12] <= 5.6\nmse = 5.572\nsamples = 5\nvalue = 28.1"] ;
106 -> 107 ;
108 [label="mse = 0.0\nsamples = 1\nvalue = 23.6"] ;
107 -> 108 ;
109 [label="X[2] <= 3.69\nmse = 0.637\nsamples = 4\nvalue = 29.225"] ;
107 -> 109 ;
110 [label="X[1] <= 16.5\nmse = 0.062\nsamples = 2\nvalue = 28.45"] ;
109 -> 110 ;
111 [label="mse = 0.0\nsamples = 1\nvalue = 28.7"] ;
110 -> 111 ;
112 [label="mse = -0.0\nsamples = 1\nvalue = 28.2"] ;
110 -> 112 ;
113 [label="X[10] <= 14.8\nmse = 0.01\nsamples = 2\nvalue = 30.0"] ;
109 -> 113 ;
114 [label="mse = 0.0\nsamples = 1\nvalue = 30.1"] ;
113 -> 114 ;
115 [label="mse = 0.0\nsamples = 1\nvalue = 29.9"] ;
113 -> 115 ;
116 [label="X[10] <= 18.9\nmse = 5.521\nsamples = 12\nvalue = 32.783"] ;
106 -> 116 ;
117 [label="X[0] <= 0.027\nmse = 3.22\nsamples = 10\nvalue = 33.53"] ;
116 -> 117 ;
118 [label="X[0] <= 0.012\nmse = 0.202\nsamples = 3\nvalue = 31.633"] ;
117 -> 118 ;
119 [label="mse = 0.0\nsamples = 1\nvalue = 32.2"] ;
118 -> 119 ;
120 [label="X[12] <= 4.49\nmse = 0.062\nsamples = 2\nvalue = 31.35"] ;
118 -> 120 ;
121 [label="mse = 0.0\nsamples = 1\nvalue = 31.6"] ;
120 -> 121 ;
122 [label="mse = -0.0\nsamples = 1\nvalue = 31.1"] ;
120 -> 122 ;
123 [label="X[4] <= 0.445\nmse = 2.311\nsamples = 7\nvalue = 34.343"] ;
117 -> 123 ;
124 [label="X[11] <= 386.65\nmse = 0.782\nsamples = 4\nvalue = 35.475"] ;
123 -> 124 ;
125 [label="mse = 0.0\nsamples = 1\nvalue = 37.0"] ;
124 -> 125 ;
126 [label="X[4] <= 0.435\nmse = 0.009\nsamples = 3\nvalue = 34.967"] ;
124 -> 126 ;
127 [label="mse = -0.0\nsamples = 2\nvalue = 34.9"] ;
126 -> 127 ;
128 [label="mse = 0.0\nsamples = 1\nvalue = 35.1"] ;
126 -> 128 ;
129 [label="X[11] <= 395.765\nmse = 0.362\nsamples = 3\nvalue = 32.833"] ;
123 -> 129 ;
130 [label="X[2] <= 4.295\nmse = 0.023\nsamples = 2\nvalue = 33.25"] ;
129 -> 130 ;
131 [label="mse = 0.0\nsamples = 1\nvalue = 33.4"] ;
130 -> 131 ;
132 [label="mse = 0.0\nsamples = 1\nvalue = 33.1"] ;
130 -> 132 ;
133 [label="mse = 0.0\nsamples = 1\nvalue = 32.0"] ;
129 -> 133 ;
134 [label="X[1] <= 51.0\nmse = 0.303\nsamples = 2\nvalue = 29.05"] ;
116 -> 134 ;
135 [label="mse = 0.0\nsamples = 1\nvalue = 29.6"] ;
134 -> 135 ;
136 [label="mse = 0.0\nsamples = 1\nvalue = 28.5"] ;
134 -> 136 ;
137 [label="X[8] <= 7.5\nmse = 4.139\nsamples = 12\nvalue = 34.742"] ;
105 -> 137 ;
138 [label="X[8] <= 2.5\nmse = 2.522\nsamples = 10\nvalue = 35.38"] ;
137 -> 138 ;
139 [label="X[11] <= 393.785\nmse = 0.755\nsamples = 4\nvalue = 33.8"] ;
138 -> 139 ;
140 [label="X[4] <= 0.437\nmse = 0.002\nsamples = 2\nvalue = 34.65"] ;
139 -> 140 ;
141 [label="mse = 0.0\nsamples = 1\nvalue = 34.6"] ;
140 -> 141 ;
142 [label="mse = -0.0\nsamples = 1\nvalue = 34.7"] ;
140 -> 142 ;
143 [label="X[4] <= 0.443\nmse = 0.063\nsamples = 2\nvalue = 32.95"] ;
139 -> 143 ;
144 [label="mse = 0.0\nsamples = 1\nvalue = 32.7"] ;
143 -> 144 ;
145 [label="mse = 0.0\nsamples = 1\nvalue = 33.2"] ;
143 -> 145 ;
146 [label="X[8] <= 4.5\nmse = 0.926\nsamples = 6\nvalue = 36.433"] ;
138 -> 146 ;
147 [label="X[8] <= 3.5\nmse = 0.09\nsamples = 2\nvalue = 37.6"] ;
146 -> 147 ;
148 [label="mse = 0.0\nsamples = 1\nvalue = 37.9"] ;
147 -> 148 ;
149 [label="mse = 0.0\nsamples = 1\nvalue = 37.3"] ;
147 -> 149 ;
150 [label="X[11] <= 395.29\nmse = 0.322\nsamples = 4\nvalue = 35.85"] ;
146 -> 150 ;
151 [label="X[1] <= 39.0\nmse = 0.029\nsamples = 3\nvalue = 36.167"] ;
150 -> 151 ;
152 [label="X[7] <= 2.958\nmse = 0.003\nsamples = 2\nvalue = 36.05"] ;
151 -> 152 ;
153 [label="mse = 0.0\nsamples = 1\nvalue = 36.0"] ;
152 -> 153 ;
154 [label="mse = 0.0\nsamples = 1\nvalue = 36.1"] ;
152 -> 154 ;
155 [label="mse = -0.0\nsamples = 1\nvalue = 36.4"] ;
151 -> 155 ;
156 [label="mse = -0.0\nsamples = 1\nvalue = 34.9"] ;
150 -> 156 ;
157 [label="X[5] <= 7.26\nmse = 0.002\nsamples = 2\nvalue = 31.55"] ;
137 -> 157 ;
158 [label="mse = 0.0\nsamples = 1\nvalue = 31.6"] ;
157 -> 158 ;
159 [label="mse = -0.0\nsamples = 1\nvalue = 31.5"] ;
157 -> 159 ;
160 [label="X[7] <= 6.101\nmse = 1.229\nsamples = 3\nvalue = 25.167"] ;
104 -> 160 ;
161 [label="X[12] <= 6.325\nmse = 0.303\nsamples = 2\nvalue = 24.45"] ;
160 -> 161 ;
162 [label="mse = 0.0\nsamples = 1\nvalue = 23.9"] ;
161 -> 162 ;
163 [label="mse = 0.0\nsamples = 1\nvalue = 25.0"] ;
161 -> 163 ;
164 [label="mse = -0.0\nsamples = 1\nvalue = 26.6"] ;
160 -> 164 ;
165 [label="X[10] <= 18.3\nmse = 42.031\nsamples = 23\nvalue = 44.709"] ;
1 -> 165 ;
166 [label="X[0] <= 0.577\nmse = 14.587\nsamples = 21\nvalue = 46.248"] ;
165 -> 166 ;
167 [label="X[0] <= 0.064\nmse = 13.371\nsamples = 16\nvalue = 45.075"] ;
166 -> 167 ;
168 [label="X[5] <= 7.826\nmse = 7.987\nsamples = 8\nvalue = 47.025"] ;
167 -> 168 ;
169 [label="X[7] <= 5.741\nmse = 2.032\nsamples = 4\nvalue = 44.425"] ;
168 -> 169 ;
170 [label="X[3] <= 0.5\nmse = 0.09\nsamples = 2\nvalue = 45.7"] ;
169 -> 170 ;
171 [label="mse = 0.0\nsamples = 1\nvalue = 45.4"] ;
170 -> 171 ;
172 [label="mse = -0.0\nsamples = 1\nvalue = 46.0"] ;
170 -> 172 ;
173 [label="X[6] <= 24.95\nmse = 0.722\nsamples = 2\nvalue = 43.15"] ;
169 -> 173 ;
174 [label="mse = 0.0\nsamples = 1\nvalue = 42.3"] ;
173 -> 174 ;
175 [label="mse = 0.0\nsamples = 1\nvalue = 44.0"] ;
173 -> 175 ;
176 [label="X[12] <= 3.39\nmse = 0.422\nsamples = 4\nvalue = 49.625"] ;
168 -> 176 ;
177 [label="mse = 0.0\nsamples = 2\nvalue = 50.0"] ;
176 -> 177 ;
178 [label="X[4] <= 0.452\nmse = 0.562\nsamples = 2\nvalue = 49.25"] ;
176 -> 178 ;
179 [label="mse = 0.0\nsamples = 1\nvalue = 48.5"] ;
178 -> 179 ;
180 [label="mse = 0.0\nsamples = 1\nvalue = 50.0"] ;
178 -> 180 ;
181 [label="X[6] <= 90.45\nmse = 11.149\nsamples = 8\nvalue = 43.125"] ;
167 -> 181 ;
182 [label="X[6] <= 62.95\nmse = 7.484\nsamples = 7\nvalue = 42.314"] ;
181 -> 182 ;
183 [label="X[6] <= 26.95\nmse = 2.082\nsamples = 3\nvalue = 44.667"] ;
182 -> 183 ;
184 [label="mse = 0.0\nsamples = 1\nvalue = 46.7"] ;
183 -> 184 ;
185 [label="X[8] <= 3.5\nmse = 0.023\nsamples = 2\nvalue = 43.65"] ;
183 -> 185 ;
186 [label="mse = 0.0\nsamples = 1\nvalue = 43.8"] ;
185 -> 186 ;
187 [label="mse = -0.0\nsamples = 1\nvalue = 43.5"] ;
185 -> 187 ;
188 [label="X[4] <= 0.506\nmse = 4.272\nsamples = 4\nvalue = 40.55"] ;
182 -> 188 ;
189 [label="X[12] <= 5.345\nmse = 1.21\nsamples = 2\nvalue = 38.7"] ;
188 -> 189 ;
190 [label="mse = 0.0\nsamples = 1\nvalue = 37.6"] ;
189 -> 190 ;
191 [label="mse = -0.0\nsamples = 1\nvalue = 39.8"] ;
189 -> 191 ;
192 [label="X[8] <= 6.5\nmse = 0.49\nsamples = 2\nvalue = 42.4"] ;
188 -> 192 ;
193 [label="mse = 0.0\nsamples = 1\nvalue = 43.1"] ;
192 -> 193 ;
194 [label="mse = -0.0\nsamples = 1\nvalue = 41.7"] ;
192 -> 194 ;
195 [label="mse = -0.0\nsamples = 1\nvalue = 48.8"] ;
181 -> 195 ;
196 [label="mse = 0.0\nsamples = 5\nvalue = 50.0"] ;
166 -> 196 ;
197 [label="X[7] <= 3.136\nmse = 44.223\nsamples = 2\nvalue = 28.55"] ;
165 -> 197 ;
198 [label="mse = 0.0\nsamples = 1\nvalue = 21.9"] ;
197 -> 198 ;
199 [label="mse = 0.0\nsamples = 1\nvalue = 35.2"] ;
197 -> 199 ;
200 [label="X[12] <= 15.0\nmse = 28.623\nsamples = 226\nvalue = 18.351"] ;
0 -> 200 [labeldistance=2.5, labelangle=-45, headlabel="False"] ;
201 [label="X[5] <= 6.605\nmse = 15.993\nsamples = 119\nvalue = 21.754"] ;
200 -> 201 ;
202 [label="X[9] <= 208.0\nmse = 8.802\nsamples = 104\nvalue = 20.905"] ;
201 -> 202 ;
203 [label="X[12] <= 13.565\nmse = 31.135\nsamples = 6\nvalue = 25.983"] ;
202 -> 203 ;
204 [label="X[12] <= 11.3\nmse = 10.89\nsamples = 2\nvalue = 32.9"] ;
203 -> 204 ;
205 [label="mse = 0.0\nsamples = 1\nvalue = 36.2"] ;
204 -> 205 ;
206 [label="mse = -0.0\nsamples = 1\nvalue = 29.6"] ;
204 -> 206 ;
207 [label="X[5] <= 5.737\nmse = 5.377\nsamples = 4\nvalue = 22.525"] ;
203 -> 207 ;
208 [label="mse = 0.0\nsamples = 1\nvalue = 26.4"] ;
207 -> 208 ;
209 [label="X[11] <= 381.345\nmse = 0.496\nsamples = 3\nvalue = 21.233"] ;
207 -> 209 ;
210 [label="mse = 0.0\nsamples = 1\nvalue = 20.3"] ;
209 -> 210 ;
211 [label="X[0] <= 0.119\nmse = 0.09\nsamples = 2\nvalue = 21.7"] ;
209 -> 211 ;
212 [label="mse = 0.0\nsamples = 1\nvalue = 22.0"] ;
211 -> 212 ;
213 [label="mse = 0.0\nsamples = 1\nvalue = 21.4"] ;
211 -> 213 ;
214 [label="X[11] <= 162.78\nmse = 5.759\nsamples = 98\nvalue = 20.594"] ;
202 -> 214 ;
215 [label="X[11] <= 58.385\nmse = 6.76\nsamples = 2\nvalue = 13.5"] ;
214 -> 215 ;
216 [label="mse = 0.0\nsamples = 1\nvalue = 10.9"] ;
215 -> 216 ;
217 [label="mse = 0.0\nsamples = 1\nvalue = 16.1"] ;
215 -> 217 ;
218 [label="X[12] <= 10.16\nmse = 4.667\nsamples = 96\nvalue = 20.742"] ;
214 -> 218 ;
219 [label="X[5] <= 5.957\nmse = 3.579\nsamples = 31\nvalue = 21.897"] ;
218 -> 219 ;
220 [label="X[10] <= 19.05\nmse = 1.692\nsamples = 10\nvalue = 20.3"] ;
219 -> 220 ;
221 [label="X[9] <= 371.5\nmse = 1.16\nsamples = 6\nvalue = 21.0"] ;
220 -> 221 ;
222 [label="X[6] <= 50.85\nmse = 0.535\nsamples = 4\nvalue = 21.6"] ;
221 -> 222 ;
223 [label="X[12] <= 8.445\nmse = 0.269\nsamples = 3\nvalue = 21.267"] ;
222 -> 223 ;
224 [label="mse = 0.0\nsamples = 1\nvalue = 22.0"] ;
223 -> 224 ;
225 [label="mse = 0.0\nsamples = 2\nvalue = 20.9"] ;
223 -> 225 ;
226 [label="mse = -0.0\nsamples = 1\nvalue = 22.6"] ;
222 -> 226 ;
227 [label="X[10] <= 17.8\nmse = 0.25\nsamples = 2\nvalue = 19.8"] ;
221 -> 227 ;
228 [label="mse = 0.0\nsamples = 1\nvalue = 19.3"] ;
227 -> 228 ;
229 [label="mse = 0.0\nsamples = 1\nvalue = 20.3"] ;
227 -> 229 ;
230 [label="X[4] <= 0.507\nmse = 0.653\nsamples = 4\nvalue = 19.25"] ;
220 -> 230 ;
231 [label="X[4] <= 0.456\nmse = 0.123\nsamples = 2\nvalue = 18.55"] ;
230 -> 231 ;
232 [label="mse = 0.0\nsamples = 1\nvalue = 18.2"] ;
231 -> 232 ;
233 [label="mse = 0.0\nsamples = 1\nvalue = 18.9"] ;
231 -> 233 ;
234 [label="X[9] <= 265.5\nmse = 0.202\nsamples = 2\nvalue = 19.95"] ;
230 -> 234 ;
235 [label="mse = 0.0\nsamples = 1\nvalue = 19.5"] ;
234 -> 235 ;
236 [label="mse = 0.0\nsamples = 1\nvalue = 20.4"] ;
234 -> 236 ;
237 [label="X[9] <= 245.0\nmse = 2.685\nsamples = 21\nvalue = 22.657"] ;
219 -> 237 ;
238 [label="X[6] <= 27.95\nmse = 1.702\nsamples = 6\nvalue = 20.967"] ;
237 -> 238 ;
239 [label="mse = 0.0\nsamples = 1\nvalue = 23.4"] ;
238 -> 239 ;
240 [label="X[5] <= 6.011\nmse = 0.622\nsamples = 5\nvalue = 20.48"] ;
238 -> 240 ;
241 [label="mse = 0.0\nsamples = 1\nvalue = 19.0"] ;
240 -> 241 ;
242 [label="X[9] <= 238.0\nmse = 0.092\nsamples = 4\nvalue = 20.85"] ;
240 -> 242 ;
243 [label="X[0] <= 0.036\nmse = 0.069\nsamples = 3\nvalue = 20.967"] ;
242 -> 243 ;
244 [label="mse = 0.0\nsamples = 1\nvalue = 20.6"] ;
243 -> 244 ;
245 [label="X[11] <= 393.145\nmse = 0.003\nsamples = 2\nvalue = 21.15"] ;
243 -> 245 ;
246 [label="mse = 0.0\nsamples = 1\nvalue = 21.2"] ;
245 -> 246 ;
247 [label="mse = 0.0\nsamples = 1\nvalue = 21.1"] ;
245 -> 247 ;
248 [label="mse = 0.0\nsamples = 1\nvalue = 20.5"] ;
242 -> 248 ;
249 [label="X[12] <= 8.86\nmse = 1.478\nsamples = 15\nvalue = 23.333"] ;
237 -> 249 ;
250 [label="X[2] <= 12.47\nmse = 0.182\nsamples = 5\nvalue = 22.14"] ;
249 -> 250 ;
251 [label="X[4] <= 0.517\nmse = 0.048\nsamples = 4\nvalue = 21.95"] ;
250 -> 251 ;
252 [label="X[8] <= 2.5\nmse = 0.009\nsamples = 3\nvalue = 22.067"] ;
251 -> 252 ;
253 [label="mse = 0.0\nsamples = 2\nvalue = 22.0"] ;
252 -> 253 ;
254 [label="mse = -0.0\nsamples = 1\nvalue = 22.2"] ;
252 -> 254 ;
255 [label="mse = -0.0\nsamples = 1\nvalue = 21.6"] ;
251 -> 255 ;
256 [label="mse = -0.0\nsamples = 1\nvalue = 22.9"] ;
250 -> 256 ;
257 [label="X[5] <= 6.579\nmse = 1.058\nsamples = 10\nvalue = 23.93"] ;
249 -> 257 ;
258 [label="X[2] <= 4.905\nmse = 0.377\nsamples = 8\nvalue = 24.362"] ;
257 -> 258 ;
259 [label="X[8] <= 4.0\nmse = 0.123\nsamples = 2\nvalue = 23.55"] ;
258 -> 259 ;
260 [label="mse = 0.0\nsamples = 1\nvalue = 23.9"] ;
259 -> 260 ;
261 [label="mse = 0.0\nsamples = 1\nvalue = 23.2"] ;
259 -> 261 ;
262 [label="X[12] <= 9.375\nmse = 0.169\nsamples = 6\nvalue = 24.633"] ;
258 -> 262 ;
263 [label="mse = 0.0\nsamples = 1\nvalue = 23.8"] ;
262 -> 263 ;
264 [label="X[10] <= 18.85\nmse = 0.036\nsamples = 5\nvalue = 24.8"] ;
262 -> 264 ;
265 [label="X[5] <= 6.374\nmse = 0.009\nsamples = 3\nvalue = 24.933"] ;
264 -> 265 ;
266 [label="mse = 0.0\nsamples = 2\nvalue = 25.0"] ;
265 -> 266 ;
267 [label="mse = 0.0\nsamples = 1\nvalue = 24.8"] ;
265 -> 267 ;
268 [label="X[1] <= 11.0\nmse = 0.01\nsamples = 2\nvalue = 24.6"] ;
264 -> 268 ;
269 [label="mse = 0.0\nsamples = 1\nvalue = 24.7"] ;
268 -> 269 ;
270 [label="mse = -0.0\nsamples = 1\nvalue = 24.5"] ;
268 -> 270 ;
271 [label="X[0] <= 0.049\nmse = 0.04\nsamples = 2\nvalue = 22.2"] ;
257 -> 271 ;
272 [label="mse = 0.0\nsamples = 1\nvalue = 22.0"] ;
271 -> 272 ;
273 [label="mse = 0.0\nsamples = 1\nvalue = 22.4"] ;
271 -> 273 ;
274 [label="X[0] <= 1.576\nmse = 4.247\nsamples = 65\nvalue = 20.191"] ;
218 -> 274 ;
275 [label="X[6] <= 73.4\nmse = 4.399\nsamples = 42\nvalue = 19.624"] ;
274 -> 275 ;
276 [label="X[0] <= 0.045\nmse = 2.527\nsamples = 21\nvalue = 20.752"] ;
275 -> 276 ;
277 [label="X[6] <= 40.0\nmse = 0.952\nsamples = 4\nvalue = 18.875"] ;
276 -> 277 ;
278 [label="X[8] <= 2.5\nmse = 0.123\nsamples = 2\nvalue = 19.75"] ;
277 -> 278 ;
279 [label="mse = 0.0\nsamples = 1\nvalue = 20.1"] ;
278 -> 279 ;
280 [label="mse = 0.0\nsamples = 1\nvalue = 19.4"] ;
278 -> 280 ;
281 [label="X[0] <= 0.031\nmse = 0.25\nsamples = 2\nvalue = 18.0"] ;
277 -> 281 ;
282 [label="mse = 0.0\nsamples = 1\nvalue = 18.5"] ;
281 -> 282 ;
283 [label="mse = 0.0\nsamples = 1\nvalue = 17.5"] ;
281 -> 283 ;
284 [label="X[11] <= 391.95\nmse = 1.873\nsamples = 17\nvalue = 21.194"] ;
276 -> 284 ;
285 [label="X[6] <= 63.35\nmse = 1.271\nsamples = 8\nvalue = 20.312"] ;
284 -> 285 ;
286 [label="X[4] <= 0.433\nmse = 0.509\nsamples = 6\nvalue = 20.833"] ;
285 -> 286 ;
287 [label="mse = 0.0\nsamples = 1\nvalue = 22.2"] ;
286 -> 287 ;
288 [label="X[5] <= 5.849\nmse = 0.162\nsamples = 5\nvalue = 20.56"] ;
286 -> 288 ;
289 [label="X[11] <= 333.275\nmse = 0.01\nsamples = 2\nvalue = 20.1"] ;
288 -> 289 ;
290 [label="mse = 0.0\nsamples = 1\nvalue = 20.2"] ;
289 -> 290 ;
291 [label="mse = -0.0\nsamples = 1\nvalue = 20.0"] ;
289 -> 291 ;
292 [label="X[7] <= 4.26\nmse = 0.029\nsamples = 3\nvalue = 20.867"] ;
288 -> 292 ;
293 [label="X[5] <= 6.03\nmse = 0.002\nsamples = 2\nvalue = 20.75"] ;
292 -> 293 ;
294 [label="mse = 0.0\nsamples = 1\nvalue = 20.7"] ;
293 -> 294 ;
295 [label="mse = 0.0\nsamples = 1\nvalue = 20.8"] ;
293 -> 295 ;
296 [label="mse = 0.0\nsamples = 1\nvalue = 21.1"] ;
292 -> 296 ;
297 [label="X[10] <= 19.4\nmse = 0.303\nsamples = 2\nvalue = 18.75"] ;
285 -> 297 ;
298 [label="mse = 0.0\nsamples = 1\nvalue = 19.3"] ;
297 -> 298 ;
299 [label="mse = 0.0\nsamples = 1\nvalue = 18.2"] ;
297 -> 299 ;
300 [label="X[9] <= 245.0\nmse = 1.104\nsamples = 9\nvalue = 21.978"] ;
284 -> 300 ;
301 [label="mse = 0.0\nsamples = 1\nvalue = 19.7"] ;
300 -> 301 ;
302 [label="X[9] <= 344.0\nmse = 0.512\nsamples = 8\nvalue = 22.263"] ;
300 -> 302 ;
303 [label="X[7] <= 4.965\nmse = 0.314\nsamples = 5\nvalue = 22.68"] ;
302 -> 303 ;
304 [label="X[9] <= 270.0\nmse = 0.092\nsamples = 4\nvalue = 22.925"] ;
303 -> 304 ;
305 [label="X[4] <= 0.548\nmse = 0.023\nsamples = 2\nvalue = 22.65"] ;
304 -> 305 ;
306 [label="mse = 0.0\nsamples = 1\nvalue = 22.5"] ;
305 -> 306 ;
307 [label="mse = 0.0\nsamples = 1\nvalue = 22.8"] ;
305 -> 307 ;
308 [label="X[2] <= 11.895\nmse = 0.01\nsamples = 2\nvalue = 23.2"] ;
304 -> 308 ;
309 [label="mse = 0.0\nsamples = 1\nvalue = 23.1"] ;
308 -> 309 ;
310 [label="mse = -0.0\nsamples = 1\nvalue = 23.3"] ;
308 -> 310 ;
311 [label="mse = -0.0\nsamples = 1\nvalue = 21.7"] ;
303 -> 311 ;
312 [label="X[9] <= 411.5\nmse = 0.069\nsamples = 3\nvalue = 21.567"] ;
302 -> 312 ;
313 [label="X[2] <= 9.125\nmse = 0.002\nsamples = 2\nvalue = 21.75"] ;
312 -> 313 ;
314 [label="mse = 0.0\nsamples = 1\nvalue = 21.7"] ;
313 -> 314 ;
315 [label="mse = 0.0\nsamples = 1\nvalue = 21.8"] ;
313 -> 315 ;
316 [label="mse = 0.0\nsamples = 1\nvalue = 21.2"] ;
312 -> 316 ;
317 [label="X[0] <= 0.141\nmse = 3.723\nsamples = 21\nvalue = 18.495"] ;
275 -> 317 ;
318 [label="X[2] <= 5.96\nmse = 1.926\nsamples = 5\nvalue = 20.56"] ;
317 -> 318 ;
319 [label="mse = 0.0\nsamples = 1\nvalue = 23.1"] ;
318 -> 319 ;
320 [label="X[7] <= 4.921\nmse = 0.392\nsamples = 4\nvalue = 19.925"] ;
318 -> 320 ;
321 [label="X[6] <= 80.4\nmse = 0.056\nsamples = 3\nvalue = 20.267"] ;
320 -> 321 ;
322 [label="mse = 0.0\nsamples = 1\nvalue = 20.6"] ;
321 -> 322 ;
323 [label="mse = -0.0\nsamples = 2\nvalue = 20.1"] ;
321 -> 323 ;
324 [label="mse = 0.0\nsamples = 1\nvalue = 18.9"] ;
320 -> 324 ;
325 [label="X[11] <= 387.345\nmse = 2.536\nsamples = 16\nvalue = 17.85"] ;
317 -> 325 ;
326 [label="X[11] <= 342.44\nmse = 2.856\nsamples = 6\nvalue = 16.75"] ;
325 -> 326 ;
327 [label="mse = 0.0\nsamples = 1\nvalue = 19.6"] ;
326 -> 327 ;
328 [label="X[6] <= 84.85\nmse = 1.478\nsamples = 5\nvalue = 16.18"] ;
326 -> 328 ;
329 [label="X[12] <= 13.585\nmse = 0.002\nsamples = 2\nvalue = 17.55"] ;
328 -> 329 ;
330 [label="mse = 0.0\nsamples = 1\nvalue = 17.6"] ;
329 -> 330 ;
331 [label="mse = -0.0\nsamples = 1\nvalue = 17.5"] ;
329 -> 331 ;
332 [label="X[6] <= 96.7\nmse = 0.376\nsamples = 3\nvalue = 15.267"] ;
328 -> 332 ;
333 [label="X[1] <= 12.5\nmse = 0.123\nsamples = 2\nvalue = 15.65"] ;
332 -> 333 ;
334 [label="mse = 0.0\nsamples = 1\nvalue = 15.3"] ;
333 -> 334 ;
335 [label="mse = 0.0\nsamples = 1\nvalue = 16.0"] ;
333 -> 335 ;
336 [label="mse = 0.0\nsamples = 1\nvalue = 14.5"] ;
332 -> 336 ;
337 [label="X[6] <= 81.15\nmse = 1.183\nsamples = 10\nvalue = 18.51"] ;
325 -> 337 ;
338 [label="X[11] <= 393.775\nmse = 0.949\nsamples = 3\nvalue = 17.167"] ;
337 -> 338 ;
339 [label="mse = 0.0\nsamples = 1\nvalue = 18.5"] ;
338 -> 339 ;
340 [label="X[12] <= 12.915\nmse = 0.09\nsamples = 2\nvalue = 16.5"] ;
338 -> 340 ;
341 [label="mse = 0.0\nsamples = 1\nvalue = 16.2"] ;
340 -> 341 ;
342 [label="mse = 0.0\nsamples = 1\nvalue = 16.8"] ;
340 -> 342 ;
343 [label="X[11] <= 391.605\nmse = 0.178\nsamples = 7\nvalue = 19.086"] ;
337 -> 343 ;
344 [label="X[8] <= 5.0\nmse = 0.002\nsamples = 2\nvalue = 18.45"] ;
343 -> 344 ;
345 [label="mse = 0.0\nsamples = 1\nvalue = 18.4"] ;
344 -> 345 ;
346 [label="mse = 0.0\nsamples = 1\nvalue = 18.5"] ;
344 -> 346 ;
347 [label="X[11] <= 395.67\nmse = 0.022\nsamples = 5\nvalue = 19.34"] ;
343 -> 347 ;
348 [label="X[12] <= 13.02\nmse = 0.002\nsamples = 3\nvalue = 19.233"] ;
347 -> 348 ;
349 [label="mse = -0.0\nsamples = 2\nvalue = 19.2"] ;
348 -> 349 ;
350 [label="mse = 0.0\nsamples = 1\nvalue = 19.3"] ;
348 -> 350 ;
351 [label="X[0] <= 0.727\nmse = 0.01\nsamples = 2\nvalue = 19.5"] ;
347 -> 351 ;
352 [label="mse = 0.0\nsamples = 1\nvalue = 19.4"] ;
351 -> 352 ;
353 [label="mse = -0.0\nsamples = 1\nvalue = 19.6"] ;
351 -> 353 ;
354 [label="X[12] <= 14.505\nmse = 2.31\nsamples = 23\nvalue = 21.226"] ;
274 -> 354 ;
355 [label="X[2] <= 18.84\nmse = 1.65\nsamples = 21\nvalue = 21.495"] ;
354 -> 355 ;
356 [label="X[12] <= 14.275\nmse = 1.199\nsamples = 16\nvalue = 21.081"] ;
355 -> 356 ;
357 [label="X[12] <= 13.305\nmse = 0.96\nsamples = 15\nvalue = 20.94"] ;
356 -> 357 ;
358 [label="X[6] <= 88.95\nmse = 0.842\nsamples = 10\nvalue = 21.34"] ;
357 -> 358 ;
359 [label="X[4] <= 0.712\nmse = 0.353\nsamples = 6\nvalue = 21.85"] ;
358 -> 359 ;
360 [label="X[7] <= 4.045\nmse = 0.047\nsamples = 4\nvalue = 21.45"] ;
359 -> 360 ;
361 [label="X[0] <= 5.756\nmse = 0.009\nsamples = 3\nvalue = 21.333"] ;
360 -> 361 ;
362 [label="mse = 0.0\nsamples = 1\nvalue = 21.2"] ;
361 -> 362 ;
363 [label="mse = -0.0\nsamples = 2\nvalue = 21.4"] ;
361 -> 363 ;
364 [label="mse = 0.0\nsamples = 1\nvalue = 21.8"] ;
360 -> 364 ;
365 [label="X[6] <= 82.35\nmse = 0.003\nsamples = 2\nvalue = 22.65"] ;
359 -> 365 ;
366 [label="mse = 0.0\nsamples = 1\nvalue = 22.6"] ;
365 -> 366 ;
367 [label="mse = 0.0\nsamples = 1\nvalue = 22.7"] ;
365 -> 367 ;
368 [label="X[11] <= 392.58\nmse = 0.602\nsamples = 4\nvalue = 20.575"] ;
358 -> 368 ;
369 [label="X[12] <= 11.73\nmse = 0.202\nsamples = 2\nvalue = 21.25"] ;
368 -> 369 ;
370 [label="mse = 0.0\nsamples = 1\nvalue = 20.8"] ;
369 -> 370 ;
371 [label="mse = -0.0\nsamples = 1\nvalue = 21.7"] ;
369 -> 371 ;
372 [label="X[5] <= 6.371\nmse = 0.09\nsamples = 2\nvalue = 19.9"] ;
368 -> 372 ;
373 [label="mse = 0.0\nsamples = 1\nvalue = 19.6"] ;
372 -> 373 ;
374 [label="mse = 0.0\nsamples = 1\nvalue = 20.2"] ;
372 -> 374 ;
375 [label="X[4] <= 0.634\nmse = 0.234\nsamples = 5\nvalue = 20.14"] ;
357 -> 375 ;
376 [label="X[6] <= 64.75\nmse = 0.01\nsamples = 2\nvalue = 20.7"] ;
375 -> 376 ;
377 [label="mse = 0.0\nsamples = 1\nvalue = 20.6"] ;
376 -> 377 ;
378 [label="mse = -0.0\nsamples = 1\nvalue = 20.8"] ;
376 -> 378 ;
379 [label="X[12] <= 14.06\nmse = 0.036\nsamples = 3\nvalue = 19.767"] ;
375 -> 379 ;
380 [label="mse = 0.0\nsamples = 1\nvalue = 19.5"] ;
379 -> 380 ;
381 [label="mse = 0.0\nsamples = 2\nvalue = 19.9"] ;
379 -> 381 ;
382 [label="mse = 0.0\nsamples = 1\nvalue = 23.2"] ;
356 -> 382 ;
383 [label="X[11] <= 313.565\nmse = 0.79\nsamples = 5\nvalue = 22.82"] ;
355 -> 383 ;
384 [label="mse = 0.0\nsamples = 2\nvalue = 23.8"] ;
383 -> 384 ;
385 [label="X[12] <= 12.87\nmse = 0.249\nsamples = 3\nvalue = 22.167"] ;
383 -> 385 ;
386 [label="X[6] <= 93.5\nmse = 0.04\nsamples = 2\nvalue = 22.5"] ;
385 -> 386 ;
387 [label="mse = 0.0\nsamples = 1\nvalue = 22.7"] ;
386 -> 387 ;
388 [label="mse = -0.0\nsamples = 1\nvalue = 22.3"] ;
386 -> 388 ;
389 [label="mse = 0.0\nsamples = 1\nvalue = 21.5"] ;
385 -> 389 ;
390 [label="X[12] <= 14.815\nmse = 0.49\nsamples = 2\nvalue = 18.4"] ;
354 -> 390 ;
391 [label="mse = 0.0\nsamples = 1\nvalue = 17.7"] ;
390 -> 391 ;
392 [label="mse = 0.0\nsamples = 1\nvalue = 19.1"] ;
390 -> 392 ;
393 [label="X[11] <= 395.585\nmse = 26.208\nsamples = 15\nvalue = 27.64"] ;
201 -> 393 ;
394 [label="X[5] <= 6.93\nmse = 14.34\nsamples = 13\nvalue = 28.985"] ;
393 -> 394 ;
395 [label="X[7] <= 3.9\nmse = 7.153\nsamples = 7\nvalue = 26.386"] ;
394 -> 395 ;
396 [label="X[7] <= 3.321\nmse = 0.315\nsamples = 4\nvalue = 28.4"] ;
395 -> 396 ;
397 [label="mse = 0.0\nsamples = 1\nvalue = 27.5"] ;
396 -> 397 ;
398 [label="X[3] <= 0.5\nmse = 0.06\nsamples = 3\nvalue = 28.7"] ;
396 -> 398 ;
399 [label="X[2] <= 8.035\nmse = 0.023\nsamples = 2\nvalue = 28.55"] ;
398 -> 399 ;
400 [label="mse = 0.0\nsamples = 1\nvalue = 28.4"] ;
399 -> 400 ;
401 [label="mse = 0.0\nsamples = 1\nvalue = 28.7"] ;
399 -> 401 ;
402 [label="mse = 0.0\nsamples = 1\nvalue = 29.0"] ;
398 -> 402 ;
403 [label="X[12] <= 10.76\nmse = 3.647\nsamples = 3\nvalue = 23.7"] ;
395 -> 403 ;
404 [label="X[12] <= 9.52\nmse = 0.003\nsamples = 2\nvalue = 25.05"] ;
403 -> 404 ;
405 [label="mse = 0.0\nsamples = 1\nvalue = 25.0"] ;
404 -> 405 ;
406 [label="mse = 0.0\nsamples = 1\nvalue = 25.1"] ;
404 -> 406 ;
407 [label="mse = 0.0\nsamples = 1\nvalue = 21.0"] ;
403 -> 407 ;
408 [label="X[12] <= 8.355\nmse = 5.651\nsamples = 6\nvalue = 32.017"] ;
394 -> 408 ;
409 [label="mse = 0.0\nsamples = 1\nvalue = 36.5"] ;
408 -> 409 ;
410 [label="X[5] <= 7.155\nmse = 1.958\nsamples = 5\nvalue = 31.12"] ;
408 -> 410 ;
411 [label="X[2] <= 11.035\nmse = 0.136\nsamples = 3\nvalue = 30.267"] ;
410 -> 411 ;
412 [label="X[12] <= 11.7\nmse = 0.04\nsamples = 2\nvalue = 30.5"] ;
411 -> 412 ;
413 [label="mse = 0.0\nsamples = 1\nvalue = 30.3"] ;
412 -> 413 ;
414 [label="mse = -0.0\nsamples = 1\nvalue = 30.7"] ;
412 -> 414 ;
415 [label="mse = 0.0\nsamples = 1\nvalue = 29.8"] ;
411 -> 415 ;
416 [label="X[6] <= 88.15\nmse = 1.96\nsamples = 2\nvalue = 32.4"] ;
410 -> 416 ;
417 [label="mse = 0.0\nsamples = 1\nvalue = 33.8"] ;
416 -> 417 ;
418 [label="mse = -0.0\nsamples = 1\nvalue = 31.0"] ;
416 -> 418 ;
419 [label="X[9] <= 549.0\nmse = 15.21\nsamples = 2\nvalue = 18.9"] ;
393 -> 419 ;
420 [label="mse = 0.0\nsamples = 1\nvalue = 22.8"] ;
419 -> 420 ;
421 [label="mse = 0.0\nsamples = 1\nvalue = 15.0"] ;
419 -> 421 ;
422 [label="X[0] <= 5.769\nmse = 15.468\nsamples = 107\nvalue = 14.566"] ;
200 -> 422 ;
423 [label="X[4] <= 0.531\nmse = 10.546\nsamples = 56\nvalue = 16.675"] ;
422 -> 423 ;
424 [label="X[8] <= 3.5\nmse = 6.142\nsamples = 12\nvalue = 19.825"] ;
423 -> 424 ;
425 [label="X[5] <= 5.715\nmse = 1.21\nsamples = 2\nvalue = 15.5"] ;
424 -> 425 ;
426 [label="mse = 0.0\nsamples = 1\nvalue = 14.4"] ;
425 -> 426 ;
427 [label="mse = 0.0\nsamples = 1\nvalue = 16.6"] ;
425 -> 427 ;
428 [label="X[6] <= 79.3\nmse = 2.639\nsamples = 10\nvalue = 20.69"] ;
424 -> 428 ;
429 [label="X[11] <= 369.18\nmse = 0.349\nsamples = 3\nvalue = 22.867"] ;
428 -> 429 ;
430 [label="mse = 0.0\nsamples = 1\nvalue = 23.7"] ;
429 -> 430 ;
431 [label="X[7] <= 4.004\nmse = 0.003\nsamples = 2\nvalue = 22.45"] ;
429 -> 431 ;
432 [label="mse = 0.0\nsamples = 1\nvalue = 22.4"] ;
431 -> 432 ;
433 [label="mse = 0.0\nsamples = 1\nvalue = 22.5"] ;
431 -> 433 ;
434 [label="X[8] <= 6.5\nmse = 0.72\nsamples = 7\nvalue = 19.757"] ;
428 -> 434 ;
435 [label="X[6] <= 98.35\nmse = 0.106\nsamples = 6\nvalue = 19.433"] ;
434 -> 435 ;
436 [label="X[7] <= 5.129\nmse = 0.05\nsamples = 5\nvalue = 19.32"] ;
435 -> 436 ;
437 [label="X[0] <= 0.217\nmse = 0.007\nsamples = 4\nvalue = 19.425"] ;
436 -> 437 ;
438 [label="mse = 0.0\nsamples = 2\nvalue = 19.5"] ;
437 -> 438 ;
439 [label="X[12] <= 19.765\nmse = 0.003\nsamples = 2\nvalue = 19.35"] ;
437 -> 439 ;
440 [label="mse = 0.0\nsamples = 1\nvalue = 19.4"] ;
439 -> 440 ;
441 [label="mse = -0.0\nsamples = 1\nvalue = 19.3"] ;
439 -> 441 ;
442 [label="mse = -0.0\nsamples = 1\nvalue = 18.9"] ;
436 -> 442 ;
443 [label="mse = -0.0\nsamples = 1\nvalue = 20.0"] ;
435 -> 443 ;
444 [label="mse = 0.0\nsamples = 1\nvalue = 21.7"] ;
434 -> 444 ;
445 [label="X[2] <= 26.695\nmse = 8.303\nsamples = 44\nvalue = 15.816"] ;
423 -> 445 ;
446 [label="X[11] <= 394.745\nmse = 5.378\nsamples = 41\nvalue = 16.234"] ;
445 -> 446 ;
447 [label="X[4] <= 0.541\nmse = 3.906\nsamples = 29\nvalue = 15.434"] ;
446 -> 447 ;
448 [label="X[0] <= 1.06\nmse = 0.849\nsamples = 8\nvalue = 13.913"] ;
447 -> 448 ;
449 [label="X[0] <= 0.795\nmse = 0.375\nsamples = 4\nvalue = 14.7"] ;
448 -> 449 ;
450 [label="mse = 0.0\nsamples = 1\nvalue = 15.6"] ;
449 -> 450 ;
451 [label="X[11] <= 304.9\nmse = 0.14\nsamples = 3\nvalue = 14.4"] ;
449 -> 451 ;
452 [label="mse = 0.0\nsamples = 1\nvalue = 13.9"] ;
451 -> 452 ;
453 [label="X[12] <= 18.58\nmse = 0.022\nsamples = 2\nvalue = 14.65"] ;
451 -> 453 ;
454 [label="mse = 0.0\nsamples = 1\nvalue = 14.8"] ;
453 -> 454 ;
455 [label="mse = 0.0\nsamples = 1\nvalue = 14.5"] ;
453 -> 455 ;
456 [label="X[7] <= 4.111\nmse = 0.082\nsamples = 4\nvalue = 13.125"] ;
448 -> 456 ;
457 [label="X[0] <= 1.5\nmse = 0.029\nsamples = 3\nvalue = 13.267"] ;
456 -> 457 ;
458 [label="X[5] <= 5.826\nmse = 0.003\nsamples = 2\nvalue = 13.15"] ;
457 -> 458 ;
459 [label="mse = 0.0\nsamples = 1\nvalue = 13.1"] ;
458 -> 459 ;
460 [label="mse = 0.0\nsamples = 1\nvalue = 13.2"] ;
458 -> 460 ;
461 [label="mse = 0.0\nsamples = 1\nvalue = 13.5"] ;
457 -> 461 ;
462 [label="mse = -0.0\nsamples = 1\nvalue = 12.7"] ;
456 -> 462 ;
463 [label="X[7] <= 1.773\nmse = 3.852\nsamples = 21\nvalue = 16.014"] ;
447 -> 463 ;
464 [label="X[5] <= 5.742\nmse = 1.959\nsamples = 9\nvalue = 14.811"] ;
463 -> 464 ;
465 [label="X[6] <= 93.9\nmse = 1.969\nsamples = 6\nvalue = 15.367"] ;
464 -> 465 ;
466 [label="mse = 0.0\nsamples = 1\nvalue = 17.8"] ;
465 -> 466 ;
467 [label="X[11] <= 128.95\nmse = 0.942\nsamples = 5\nvalue = 14.88"] ;
465 -> 467 ;
468 [label="mse = 0.0\nsamples = 1\nvalue = 13.1"] ;
467 -> 468 ;
469 [label="X[12] <= 28.395\nmse = 0.187\nsamples = 4\nvalue = 15.325"] ;
467 -> 469 ;
470 [label="X[0] <= 2.445\nmse = 0.016\nsamples = 3\nvalue = 15.567"] ;
469 -> 470 ;
471 [label="X[9] <= 295.5\nmse = 0.002\nsamples = 2\nvalue = 15.65"] ;
470 -> 471 ;
472 [label="mse = 0.0\nsamples = 1\nvalue = 15.7"] ;
471 -> 472 ;
473 [label="mse = 0.0\nsamples = 1\nvalue = 15.6"] ;
471 -> 473 ;
474 [label="mse = 0.0\nsamples = 1\nvalue = 15.4"] ;
470 -> 474 ;
475 [label="mse = 0.0\nsamples = 1\nvalue = 14.6"] ;
469 -> 475 ;
476 [label="X[11] <= 390.06\nmse = 0.087\nsamples = 3\nvalue = 13.7"] ;
464 -> 476 ;
477 [label="X[11] <= 280.495\nmse = 0.01\nsamples = 2\nvalue = 13.9"] ;
476 -> 477 ;
478 [label="mse = 0.0\nsamples = 1\nvalue = 13.8"] ;
477 -> 478 ;
479 [label="mse = 0.0\nsamples = 1\nvalue = 14.0"] ;
477 -> 479 ;
480 [label="mse = -0.0\nsamples = 1\nvalue = 13.3"] ;
476 -> 480 ;
481 [label="X[0] <= 4.546\nmse = 3.371\nsamples = 12\nvalue = 16.917"] ;
463 -> 481 ;
482 [label="X[7] <= 2.215\nmse = 0.82\nsamples = 8\nvalue = 17.938"] ;
481 -> 482 ;
483 [label="X[5] <= 5.774\nmse = 0.296\nsamples = 3\nvalue = 16.967"] ;
482 -> 483 ;
484 [label="mse = 0.0\nsamples = 1\nvalue = 16.2"] ;
483 -> 484 ;
485 [label="X[10] <= 20.15\nmse = 0.002\nsamples = 2\nvalue = 17.35"] ;
483 -> 485 ;
486 [label="mse = 0.0\nsamples = 1\nvalue = 17.3"] ;
485 -> 486 ;
487 [label="mse = -0.0\nsamples = 1\nvalue = 17.4"] ;
485 -> 487 ;
488 [label="X[11] <= 338.1\nmse = 0.23\nsamples = 5\nvalue = 18.52"] ;
482 -> 488 ;
489 [label="X[7] <= 2.706\nmse = 0.002\nsamples = 2\nvalue = 19.05"] ;
488 -> 489 ;
490 [label="mse = 0.0\nsamples = 1\nvalue = 19.1"] ;
489 -> 490 ;
491 [label="mse = 0.0\nsamples = 1\nvalue = 19.0"] ;
489 -> 491 ;
492 [label="X[9] <= 368.0\nmse = 0.069\nsamples = 3\nvalue = 18.167"] ;
488 -> 492 ;
493 [label="mse = 0.0\nsamples = 1\nvalue = 17.8"] ;
492 -> 493 ;
494 [label="X[10] <= 19.5\nmse = 0.002\nsamples = 2\nvalue = 18.35"] ;
492 -> 494 ;
495 [label="mse = 0.0\nsamples = 1\nvalue = 18.3"] ;
494 -> 495 ;
496 [label="mse = -0.0\nsamples = 1\nvalue = 18.4"] ;
494 -> 496 ;
497 [label="X[6] <= 88.95\nmse = 2.222\nsamples = 4\nvalue = 14.875"] ;
481 -> 497 ;
498 [label="X[5] <= 6.206\nmse = 0.64\nsamples = 2\nvalue = 13.5"] ;
497 -> 498 ;
499 [label="mse = 0.0\nsamples = 1\nvalue = 12.7"] ;
498 -> 499 ;
500 [label="mse = -0.0\nsamples = 1\nvalue = 14.3"] ;
498 -> 500 ;
501 [label="X[6] <= 90.9\nmse = 0.023\nsamples = 2\nvalue = 16.25"] ;
497 -> 501 ;
502 [label="mse = 0.0\nsamples = 1\nvalue = 16.4"] ;
501 -> 502 ;
503 [label="mse = 0.0\nsamples = 1\nvalue = 16.1"] ;
501 -> 503 ;
504 [label="X[7] <= 2.599\nmse = 3.657\nsamples = 12\nvalue = 18.167"] ;
446 -> 504 ;
505 [label="X[12] <= 17.465\nmse = 2.035\nsamples = 8\nvalue = 17.138"] ;
504 -> 505 ;
506 [label="X[11] <= 395.73\nmse = 0.232\nsamples = 4\nvalue = 18.175"] ;
505 -> 506 ;
507 [label="X[12] <= 16.4\nmse = 0.04\nsamples = 2\nvalue = 18.6"] ;
506 -> 507 ;
508 [label="mse = 0.0\nsamples = 1\nvalue = 18.8"] ;
507 -> 508 ;
509 [label="mse = -0.0\nsamples = 1\nvalue = 18.4"] ;
507 -> 509 ;
510 [label="X[2] <= 15.79\nmse = 0.063\nsamples = 2\nvalue = 17.75"] ;
506 -> 510 ;
511 [label="mse = 0.0\nsamples = 1\nvalue = 17.5"] ;
510 -> 511 ;
512 [label="mse = 0.0\nsamples = 1\nvalue = 18.0"] ;
510 -> 512 ;
513 [label="X[5] <= 5.894\nmse = 1.685\nsamples = 4\nvalue = 16.1"] ;
505 -> 513 ;
514 [label="X[5] <= 5.553\nmse = 0.423\nsamples = 2\nvalue = 14.95"] ;
513 -> 514 ;
515 [label="mse = 0.0\nsamples = 1\nvalue = 15.6"] ;
514 -> 515 ;
516 [label="mse = 0.0\nsamples = 1\nvalue = 14.3"] ;
514 -> 516 ;
517 [label="X[5] <= 6.318\nmse = 0.302\nsamples = 2\nvalue = 17.25"] ;
513 -> 517 ;
518 [label="mse = 0.0\nsamples = 1\nvalue = 17.8"] ;
517 -> 518 ;
519 [label="mse = 0.0\nsamples = 1\nvalue = 16.7"] ;
517 -> 519 ;
520 [label="X[6] <= 88.9\nmse = 0.547\nsamples = 4\nvalue = 20.225"] ;
504 -> 520 ;
521 [label="X[2] <= 9.795\nmse = 0.007\nsamples = 3\nvalue = 19.8"] ;
520 -> 521 ;
522 [label="mse = 0.0\nsamples = 1\nvalue = 19.7"] ;
521 -> 522 ;
523 [label="X[10] <= 19.3\nmse = 0.002\nsamples = 2\nvalue = 19.85"] ;
521 -> 523 ;
524 [label="mse = 0.0\nsamples = 1\nvalue = 19.8"] ;
523 -> 524 ;
525 [label="mse = -0.0\nsamples = 1\nvalue = 19.9"] ;
523 -> 525 ;
526 [label="mse = 0.0\nsamples = 1\nvalue = 21.5"] ;
520 -> 526 ;
527 [label="X[5] <= 5.434\nmse = 13.207\nsamples = 3\nvalue = 10.1"] ;
445 -> 527 ;
528 [label="X[5] <= 5.253\nmse = 0.303\nsamples = 2\nvalue = 7.55"] ;
527 -> 528 ;
529 [label="mse = 0.0\nsamples = 1\nvalue = 8.1"] ;
528 -> 529 ;
530 [label="mse = 0.0\nsamples = 1\nvalue = 7.0"] ;
528 -> 530 ;
531 [label="mse = -0.0\nsamples = 1\nvalue = 15.2"] ;
527 -> 531 ;
532 [label="X[12] <= 20.195\nmse = 10.63\nsamples = 51\nvalue = 12.251"] ;
422 -> 532 ;
533 [label="X[6] <= 99.1\nmse = 6.504\nsamples = 25\nvalue = 14.036"] ;
532 -> 533 ;
534 [label="X[7] <= 1.655\nmse = 6.168\nsamples = 21\nvalue = 13.557"] ;
533 -> 534 ;
535 [label="X[4] <= 0.682\nmse = 0.903\nsamples = 2\nvalue = 9.45"] ;
534 -> 535 ;
536 [label="mse = 0.0\nsamples = 1\nvalue = 10.4"] ;
535 -> 536 ;
537 [label="mse = 0.0\nsamples = 1\nvalue = 8.5"] ;
535 -> 537 ;
538 [label="X[7] <= 2.846\nmse = 4.76\nsamples = 19\nvalue = 13.989"] ;
534 -> 538 ;
539 [label="X[0] <= 13.637\nmse = 3.493\nsamples = 18\nvalue = 13.706"] ;
538 -> 539 ;
540 [label="X[4] <= 0.755\nmse = 2.479\nsamples = 16\nvalue = 14.087"] ;
539 -> 540 ;
541 [label="X[12] <= 19.445\nmse = 1.664\nsamples = 15\nvalue = 13.84"] ;
540 -> 541 ;
542 [label="X[4] <= 0.697\nmse = 1.024\nsamples = 13\nvalue = 13.569"] ;
541 -> 542 ;
543 [label="X[12] <= 15.76\nmse = 0.562\nsamples = 4\nvalue = 12.675"] ;
542 -> 543 ;
544 [label="mse = 0.0\nsamples = 1\nvalue = 13.8"] ;
543 -> 544 ;
545 [label="X[7] <= 1.923\nmse = 0.187\nsamples = 3\nvalue = 12.3"] ;
543 -> 545 ;
546 [label="X[6] <= 95.35\nmse = 0.01\nsamples = 2\nvalue = 12.6"] ;
545 -> 546 ;
547 [label="mse = 0.0\nsamples = 1\nvalue = 12.7"] ;
546 -> 547 ;
548 [label="mse = -0.0\nsamples = 1\nvalue = 12.5"] ;
546 -> 548 ;
549 [label="mse = 0.0\nsamples = 1\nvalue = 11.7"] ;
545 -> 549 ;
550 [label="X[0] <= 9.719\nmse = 0.716\nsamples = 9\nvalue = 13.967"] ;
542 -> 550 ;
551 [label="X[12] <= 19.01\nmse = 0.542\nsamples = 8\nvalue = 14.138"] ;
550 -> 551 ;
552 [label="X[11] <= 5.09\nmse = 0.409\nsamples = 7\nvalue = 14.3"] ;
551 -> 552 ;
553 [label="X[12] <= 17.19\nmse = 0.003\nsamples = 2\nvalue = 13.45"] ;
552 -> 553 ;
554 [label="mse = 0.0\nsamples = 1\nvalue = 13.5"] ;
553 -> 554 ;
555 [label="mse = 0.0\nsamples = 1\nvalue = 13.4"] ;
553 -> 555 ;
556 [label="X[11] <= 395.665\nmse = 0.166\nsamples = 5\nvalue = 14.64"] ;
552 -> 556 ;
557 [label="X[12] <= 15.965\nmse = 0.117\nsamples = 4\nvalue = 14.775"] ;
556 -> 557 ;
558 [label="mse = 0.0\nsamples = 1\nvalue = 14.2"] ;
557 -> 558 ;
559 [label="X[0] <= 7.357\nmse = 0.009\nsamples = 3\nvalue = 14.967"] ;
557 -> 559 ;
560 [label="mse = 0.0\nsamples = 1\nvalue = 15.1"] ;
559 -> 560 ;
561 [label="mse = 0.0\nsamples = 2\nvalue = 14.9"] ;
559 -> 561 ;
562 [label="mse = -0.0\nsamples = 1\nvalue = 14.1"] ;
556 -> 562 ;
563 [label="mse = 0.0\nsamples = 1\nvalue = 13.0"] ;
551 -> 563 ;
564 [label="mse = 0.0\nsamples = 1\nvalue = 12.6"] ;
550 -> 564 ;
565 [label="X[0] <= 9.893\nmse = 2.25\nsamples = 2\nvalue = 15.6"] ;
541 -> 565 ;
566 [label="mse = 0.0\nsamples = 1\nvalue = 17.1"] ;
565 -> 566 ;
567 [label="mse = -0.0\nsamples = 1\nvalue = 14.1"] ;
565 -> 567 ;
568 [label="mse = 0.0\nsamples = 1\nvalue = 17.8"] ;
540 -> 568 ;
569 [label="X[5] <= 6.335\nmse = 1.102\nsamples = 2\nvalue = 10.65"] ;
539 -> 569 ;
570 [label="mse = 0.0\nsamples = 1\nvalue = 11.7"] ;
569 -> 570 ;
571 [label="mse = 0.0\nsamples = 1\nvalue = 9.6"] ;
569 -> 571 ;
572 [label="mse = 0.0\nsamples = 1\nvalue = 19.1"] ;
538 -> 572 ;
573 [label="X[5] <= 6.939\nmse = 0.743\nsamples = 4\nvalue = 16.55"] ;
533 -> 573 ;
574 [label="X[0] <= 10.527\nmse = 0.296\nsamples = 3\nvalue = 16.133"] ;
573 -> 574 ;
575 [label="mse = 0.0\nsamples = 1\nvalue = 15.4"] ;
574 -> 575 ;
576 [label="X[5] <= 5.783\nmse = 0.04\nsamples = 2\nvalue = 16.5"] ;
574 -> 576 ;
577 [label="mse = 0.0\nsamples = 1\nvalue = 16.3"] ;
576 -> 577 ;
578 [label="mse = -0.0\nsamples = 1\nvalue = 16.7"] ;
576 -> 578 ;
579 [label="mse = 0.0\nsamples = 1\nvalue = 17.8"] ;
573 -> 579 ;
580 [label="X[4] <= 0.675\nmse = 8.587\nsamples = 26\nvalue = 10.535"] ;
532 -> 580 ;
581 [label="X[4] <= 0.606\nmse = 4.462\nsamples = 9\nvalue = 13.033"] ;
580 -> 581 ;
582 [label="mse = 0.0\nsamples = 1\nvalue = 17.9"] ;
581 -> 582 ;
583 [label="X[0] <= 15.581\nmse = 1.689\nsamples = 8\nvalue = 12.425"] ;
581 -> 583 ;
584 [label="X[7] <= 2.061\nmse = 0.462\nsamples = 5\nvalue = 13.28"] ;
583 -> 584 ;
585 [label="X[7] <= 1.351\nmse = 0.065\nsamples = 4\nvalue = 13.6"] ;
584 -> 585 ;
586 [label="X[0] <= 13.198\nmse = 0.002\nsamples = 2\nvalue = 13.85"] ;
585 -> 586 ;
587 [label="mse = 0.0\nsamples = 1\nvalue = 13.8"] ;
586 -> 587 ;
588 [label="mse = -0.0\nsamples = 1\nvalue = 13.9"] ;
586 -> 588 ;
589 [label="X[12] <= 22.265\nmse = 0.002\nsamples = 2\nvalue = 13.35"] ;
585 -> 589 ;
590 [label="mse = 0.0\nsamples = 1\nvalue = 13.3"] ;
589 -> 590 ;
591 [label="mse = -0.0\nsamples = 1\nvalue = 13.4"] ;
589 -> 591 ;
592 [label="mse = 0.0\nsamples = 1\nvalue = 12.0"] ;
584 -> 592 ;
593 [label="X[4] <= 0.665\nmse = 0.487\nsamples = 3\nvalue = 11.0"] ;
583 -> 593 ;
594 [label="mse = 0.0\nsamples = 1\nvalue = 11.9"] ;
593 -> 594 ;
595 [label="X[5] <= 6.384\nmse = 0.123\nsamples = 2\nvalue = 10.55"] ;
593 -> 595 ;
596 [label="mse = 0.0\nsamples = 1\nvalue = 10.2"] ;
595 -> 596 ;
597 [label="mse = -0.0\nsamples = 1\nvalue = 10.9"] ;
595 -> 597 ;
598 [label="X[7] <= 1.577\nmse = 5.715\nsamples = 17\nvalue = 9.212"] ;
580 -> 598 ;
599 [label="X[0] <= 29.218\nmse = 2.062\nsamples = 5\nvalue = 6.46"] ;
598 -> 599 ;
600 [label="X[7] <= 1.47\nmse = 1.069\nsamples = 3\nvalue = 7.433"] ;
599 -> 600 ;
601 [label="mse = 0.0\nsamples = 1\nvalue = 8.8"] ;
600 -> 601 ;
602 [label="X[12] <= 25.145\nmse = 0.203\nsamples = 2\nvalue = 6.75"] ;
600 -> 602 ;
603 [label="mse = 0.0\nsamples = 1\nvalue = 7.2"] ;
602 -> 603 ;
604 [label="mse = 0.0\nsamples = 1\nvalue = 6.3"] ;
602 -> 604 ;
605 [label="mse = 0.0\nsamples = 2\nvalue = 5.0"] ;
599 -> 605 ;
606 [label="X[12] <= 24.03\nmse = 2.767\nsamples = 12\nvalue = 10.358"] ;
598 -> 606 ;
607 [label="X[0] <= 11.737\nmse = 0.522\nsamples = 7\nvalue = 11.543"] ;
606 -> 607 ;
608 [label="X[6] <= 94.35\nmse = 0.276\nsamples = 5\nvalue = 11.9"] ;
607 -> 608 ;
609 [label="mse = 0.0\nsamples = 1\nvalue = 12.8"] ;
608 -> 609 ;
610 [label="X[11] <= 386.505\nmse = 0.092\nsamples = 4\nvalue = 11.675"] ;
608 -> 610 ;
611 [label="X[0] <= 10.134\nmse = 0.023\nsamples = 2\nvalue = 11.95"] ;
610 -> 611 ;
612 [label="mse = 0.0\nsamples = 1\nvalue = 12.1"] ;
611 -> 612 ;
613 [label="mse = 0.0\nsamples = 1\nvalue = 11.8"] ;
611 -> 613 ;
614 [label="X[12] <= 22.225\nmse = 0.01\nsamples = 2\nvalue = 11.4"] ;
610 -> 614 ;
615 [label="mse = 0.0\nsamples = 1\nvalue = 11.5"] ;
614 -> 615 ;
616 [label="mse = -0.0\nsamples = 1\nvalue = 11.3"] ;
614 -> 616 ;
617 [label="X[0] <= 17.427\nmse = 0.023\nsamples = 2\nvalue = 10.65"] ;
607 -> 617 ;
618 [label="mse = 0.0\nsamples = 1\nvalue = 10.8"] ;
617 -> 618 ;
619 [label="mse = 0.0\nsamples = 1\nvalue = 10.5"] ;
617 -> 619 ;
620 [label="X[0] <= 15.097\nmse = 1.196\nsamples = 5\nvalue = 8.7"] ;
606 -> 620 ;
621 [label="X[0] <= 11.836\nmse = 0.123\nsamples = 2\nvalue = 9.85"] ;
620 -> 621 ;
622 [label="mse = 0.0\nsamples = 1\nvalue = 9.5"] ;
621 -> 622 ;
623 [label="mse = 0.0\nsamples = 1\nvalue = 10.2"] ;
621 -> 623 ;
624 [label="X[0] <= 43.638\nmse = 0.442\nsamples = 3\nvalue = 7.933"] ;
620 -> 624 ;
625 [label="X[4] <= 0.686\nmse = 0.01\nsamples = 2\nvalue = 8.4"] ;
624 -> 625 ;
626 [label="mse = 0.0\nsamples = 1\nvalue = 8.3"] ;
625 -> 626 ;
627 [label="mse = 0.0\nsamples = 1\nvalue = 8.5"] ;
625 -> 627 ;
628 [label="mse = 0.0\nsamples = 1\nvalue = 7.0"] ;
624 -> 628 ;
}
